digraph Tree {
node [shape=box] ;
0 [label="var_tol <= 3.5\nmse = 1.4\nsamples = 13\nvalue = 4.0"] ;
1 [label="inv_aco <= 1.5\nmse = 1.4\nsamples = 9\nvalue = 3.6"] ;
0 -> 1 [labeldistance=2.5, labelangle=45, headlabel="True"] ;
2 [label="sav_fud <= 4.5\nmse = 0.6\nsamples = 5\nvalue = 4.2"] ;
1 -> 2 ;
3 [label="var_act <= 3.5\nmse = 0.2\nsamples = 3\nvalue = 3.7"] ;
2 -> 3 ;
4 [label="mse = 0.0\nsamples = 2\nvalue = 4.0"] ;
3 -> 4 ;
5 [label="mse = 0.0\nsamples = 1\nvalue = 3.0"] ;
3 -> 5 ;
6 [label="mse = 0.0\nsamples = 2\nvalue = 5.0"] ;
2 -> 6 ;
7 [label="var_tol <= 1.5\nmse = 1.2\nsamples = 4\nvalue = 2.8"] ;
1 -> 7 ;
8 [label="mse = 0.0\nsamples = 1\nvalue = 1.0"] ;
7 -> 8 ;
9 [label="inv_aco <= 2.5\nmse = 0.2\nsamples = 3\nvalue = 3.3"] ;
7 -> 9 ;
10 [label="mse = 0.0\nsamples = 2\nvalue = 3.0"] ;
9 -> 10 ;
11 [label="mse = 0.0\nsamples = 1\nvalue = 4.0"] ;
9 -> 11 ;
12 [label="mse = 0.0\nsamples = 4\nvalue = 5.0"] ;
0 -> 12 [labeldistance=2.5, labelangle=-45, headlabel="False"] ;
}